digraph Tree {
node [shape=box, style="filled, rounded", color="black", fontname=helvetica] ;
edge [fontname=helvetica] ;
0 [label="Petal.Length <= 2.45\nentropy = 1.585\nsamples = 105\nvalue = [35, 35, 35]\nclass = setosa", fillcolor="#e5813900"] ;
1 [label="entropy = 0.0\nsamples = 35\nvalue = [35, 0, 0]\nclass = setosa", fillcolor="#e58139ff"] ;
0 -> 1 [labeldistance=2.5, labelangle=45, headlabel="True"] ;
2 [label="Petal.Width <= 1.75\nentropy = 1.0\nsamples = 70\nvalue = [0, 35, 35]\nclass = versicolor", fillcolor="#39e58100"] ;
0 -> 2 [labeldistance=2.5, labelangle=-45, headlabel="False"] ;
3 [label="Petal.Length <= 5.05\nentropy = 0.3034\nsamples = 37\nvalue = [0, 35, 2]\nclass = versicolor", fillcolor="#39e581f0"] ;
2 -> 3 ;
4 [label="entropy = 0.0\nsamples = 34\nvalue = [0, 34, 0]\nclass = versicolor", fillcolor="#39e581ff"] ;
3 -> 4 ;
5 [label="Sepal.Width <= 2.75\nentropy = 0.9183\nsamples = 3\nvalue = [0, 1, 2]\nclass = virginica", fillcolor="#8139e57f"] ;
3 -> 5 ;
6 [label="entropy = 0.0\nsamples = 1\nvalue = [0, 1, 0]\nclass = versicolor", fillcolor="#39e581ff"] ;
5 -> 6 ;
7 [label="entropy = 0.0\nsamples = 2\nvalue = [0, 0, 2]\nclass = virginica", fillcolor="#8139e5ff"] ;
5 -> 7 ;
8 [label="entropy = 0.0\nsamples = 33\nvalue = [0, 0, 33]\nclass = virginica", fillcolor="#8139e5ff"] ;
2 -> 8 ;
}